14 100
sentence 0.001091 -0.001508 -0.003207 -0.000995 0.000315 0.004372 -0.003697 -0.003340 -0.004543 0.001000 -0.004236 -0.003832 0.004329 -0.003251 0.002957 -0.003719 -0.001005 0.004846 -0.003532 0.000122 -0.004587 0.003717 -0.004158 -0.003933 -0.000870 -0.004590 0.003768 -0.003987 0.001568 0.004367 0.001757 0.001425 -0.003023 0.001563 0.001137 -0.001066 0.004959 0.001511 -0.003552 -0.001737 -0.004473 -0.003677 0.003560 -0.000738 0.000748 0.002568 0.000807 -0.002706 -0.004232 0.003434 0.000929 0.004306 -0.001687 0.002324 -0.003987 0.004221 0.003053 0.002752 0.004323 -0.003941 -0.002201 -0.002569 -0.004124 -0.001570 -0.003001 -0.003193 0.002119 -0.004918 -0.002959 -0.002721 -0.003684 0.004821 -0.003231 0.000793 -0.001139 0.004133 -0.002285 0.001188 0.004927 0.001030 -0.002927 0.002565 0.000357 0.003560 0.000075 -0.000401 -0.003833 -0.001520 -0.001278 -0.003437 -0.003127 0.002051 -0.004027 -0.003578 -0.001955 -0.001010 0.002478 -0.001267 -0.003629 -0.001769
the 0.004958 -0.001650 -0.000719 0.000268 0.003203 -0.001626 -0.003290 -0.004304 -0.001779 -0.003555 -0.002185 0.004464 0.003234 0.002592 -0.002738 0.001924 -0.004395 0.000061 -0.004327 -0.004935 0.001491 0.001780 0.004538 0.001378 -0.003832 0.001577 -0.000804 -0.000390 -0.000513 -0.004041 0.000048 0.002447 0.001363 -0.003936 0.000030 0.000740 -0.001793 0.001935 -0.002133 0.002696 0.004668 -0.002540 0.001177 -0.004770 -0.000527 -0.004563 0.001253 -0.003979 0.000305 -0.000413 -0.004970 0.002094 0.003972 0.003216 0.004705 0.001440 0.000420 -0.002899 0.003031 -0.000418 0.001504 -0.001561 -0.004990 -0.001737 -0.004128 -0.001604 0.001072 0.000334 0.002299 -0.004723 0.003579 -0.002198 0.000662 0.001392 0.003573 -0.000500 0.001646 -0.001308 0.003320 0.002148 -0.003878 -0.000302 0.001259 0.001515 -0.000421 0.002589 0.000222 -0.001351 0.004631 0.000198 -0.002927 -0.003464 -0.004762 -0.004795 0.001606 0.000178 -0.002538 0.001942 -0.004923 -0.001721
this -0.004644 -0.000601 -0.001337 -0.001634 -0.002128 -0.001524 -0.002497 0.003354 -0.003800 0.002767 0.003923 -0.003276 0.004945 -0.002549 0.001346 -0.000137 -0.002882 0.001769 -0.000229 0.003288 -0.004685 0.002063 0.001649 -0.000189 0.004255 0.002763 -0.001911 -0.003882 0.004813 -0.002740 -0.001663 -0.003642 0.000318 -0.003858 0.004083 0.001870 0.002329 -0.000407 -0.004233 -0.003278 -0.003615 0.004180 -0.001553 -0.003291 -0.000211 0.001313 0.004382 0.001746 -0.003594 0.003776 -0.004906 -0.002927 -0.001447 -0.001380 -0.002770 -0.000561 -0.004387 -0.001542 -0.001819 -0.002559 0.002117 0.002722 0.000236 -0.004520 0.001286 -0.004294 -0.001804 0.003016 0.000945 0.001490 -0.003630 0.001533 -0.004598 0.000418 0.001277 0.002973 -0.000592 0.004938 -0.004792 0.000992 -0.002577 -0.001137 -0.002469 -0.000050 0.004936 -0.000794 -0.004018 -0.004092 0.004452 -0.003745 -0.001163 -0.001066 0.003876 0.004855 0.001624 -0.003123 0.002017 0.002342 -0.003350 -0.000198
is 0.000500 0.000970 0.003514 0.001978 0.000054 -0.002849 -0.004618 0.004119 0.001329 -0.001159 -0.001770 0.002179 -0.004492 -0.001020 0.000010 -0.000366 0.000333 -0.000283 -0.004760 -0.002343 0.000179 0.000515 -0.004545 0.002220 0.002001 -0.004134 0.004334 0.002197 -0.004992 0.000767 -0.004166 0.003576 0.004440 -0.003004 0.002799 0.001885 -0.004098 -0.001444 0.003276 0.002556 0.000766 -0.000059 0.001759 0.004375 -0.000417 -0.003391 -0.000870 0.002027 0.003458 -0.004446 0.002794 0.000622 -0.000508 -0.004840 0.000933 -0.002172 -0.003055 0.002821 -0.003875 0.004297 -0.003225 0.002168 0.000411 0.002735 0.002709 -0.004408 0.003918 0.001661 -0.002048 0.000908 0.004198 0.002619 0.000591 -0.001147 -0.004382 0.001151 -0.001982 -0.000825 0.003879 -0.004951 0.000444 -0.001414 -0.002481 -0.002589 -0.003844 -0.004813 -0.001204 0.003012 0.001385 -0.002308 0.000845 -0.003516 -0.003286 -0.003947 -0.000086 0.002313 0.000943 0.000535 -0.003001 0.002702
and 0.000144 0.002433 0.001209 -0.000537 0.002977 0.002872 0.004456 0.002465 0.002190 0.004773 0.000051 -0.000984 -0.004917 -0.001538 0.000443 0.003363 0.002197 -0.002398 -0.000350 0.000723 0.001760 0.003712 -0.000871 0.003242 -0.002382 -0.000784 -0.002182 0.001987 -0.004007 -0.004943 0.003532 0.002949 -0.003044 0.003732 0.004502 0.000604 0.003408 0.004723 0.004598 -0.003391 0.003028 0.000941 0.002122 -0.000750 -0.002581 0.003506 0.004638 0.004085 0.003097 0.004465 0.003766 -0.002295 -0.004100 0.001719 -0.001553 0.003841 0.000373 -0.002429 -0.004612 -0.002916 0.001467 0.003582 0.000039 0.001257 0.001644 -0.002424 -0.004748 0.003977 0.003776 -0.004877 0.002330 0.003390 0.001387 -0.004216 -0.001302 -0.004258 -0.004923 0.003352 -0.000974 -0.001374 0.000611 0.001180 -0.000126 -0.002559 0.001072 0.002419 0.000516 -0.000765 0.002995 0.004822 -0.004152 0.004927 -0.004535 0.003870 0.002962 -0.001242 -0.002912 0.001603 0.002381 -0.001427
word2vec 0.002685 0.003690 -0.001517 0.002975 -0.000704 -0.003169 0.004937 -0.000197 -0.002270 -0.000216 0.000115 -0.003779 -0.004430 0.001770 -0.001141 -0.000215 0.004190 0.001306 0.003690 0.004002 0.000593 -0.001804 0.000259 0.004097 0.004499 0.002676 0.001289 -0.002710 -0.001868 0.001399 0.003109 -0.001607 0.001476 -0.001756 -0.003168 0.000278 -0.003372 0.001569 -0.003067 -0.002730 -0.001852 0.001810 0.001579 0.003603 0.001819 -0.000260 -0.003062 -0.002704 0.004047 0.003082 0.001520 -0.000982 0.002506 0.002638 -0.004564 0.000325 0.001312 -0.004334 -0.004200 -0.000015 -0.003103 -0.000262 0.003521 0.004496 0.001098 0.004520 0.002136 0.004263 0.004864 -0.002490 -0.001866 -0.001850 -0.002329 0.002713 0.003884 -0.000268 -0.003998 -0.003048 0.000028 -0.004136 -0.004141 0.003047 -0.001312 0.001738 -0.003720 -0.002523 -0.002404 -0.000531 0.003131 -0.001869 0.002531 -0.002789 -0.000287 -0.004930 -0.003648 0.004853 0.003677 0.004284 0.000364 0.003746
for 0.001353 -0.004254 0.003151 0.002151 -0.001595 -0.001829 0.000901 0.001320 0.004967 0.002948 -0.001546 -0.004169 -0.001878 0.001144 -0.001232 -0.004261 -0.003346 0.001024 0.003711 -0.003485 -0.003401 0.000623 -0.001910 0.004253 -0.002710 -0.001077 -0.002150 0.001778 -0.004328 0.000602 0.004018 0.000511 -0.001519 0.000317 -0.001522 0.000772 0.004040 -0.004106 -0.002371 -0.003896 -0.002333 0.004458 -0.003863 0.002035 0.003072 -0.003797 -0.001955 -0.003648 -0.003283 0.003700 -0.004281 0.004283 -0.000340 0.003290 -0.003130 -0.000477 0.000986 0.001290 0.003950 -0.003101 0.001040 0.003184 0.001447 -0.000078 0.004328 0.003107 -0.001815 0.002481 0.004924 0.002070 -0.004214 0.002875 0.001298 0.004049 -0.002000 -0.001145 -0.000134 0.001509 -0.000760 -0.004951 0.004226 0.001071 0.000050 0.003418 0.001056 0.001488 -0.002550 0.003072 0.003208 -0.002728 0.002794 -0.003908 0.000950 -0.004830 0.000074 0.003182 0.004129 0.001645 -0.000657 0.004822
one -0.003195 0.004270 -0.003350 0.001893 0.000530 -0.000439 -0.002648 -0.000288 -0.003220 0.001002 0.001687 -0.004540 0.001034 0.002823 0.004031 -0.001028 0.002506 -0.001613 -0.004618 0.000132 -0.004714 -0.002042 -0.003299 0.004880 0.004708 -0.003744 -0.003143 0.004910 -0.004274 -0.000529 -0.004218 -0.002792 0.003904 0.003879 0.000847 0.001543 -0.003200 -0.004627 -0.004976 -0.004946 -0.003269 -0.002275 -0.001578 0.003309 0.003818 -0.003152 0.002981 -0.003234 0.001788 0.001271 0.000112 -0.002045 -0.000289 0.000298 -0.004224 -0.000729 -0.003700 -0.001285 0.000441 -0.003901 0.002998 -0.000400 0.003796 0.003682 -0.000975 0.003015 -0.000908 -0.001120 0.004912 0.002066 -0.002299 -0.004796 0.000625 -0.001844 -0.004925 -0.003164 0.002512 0.000623 0.002664 -0.001474 0.001243 0.003822 0.004495 -0.002598 -0.002402 -0.001095 0.000460 -0.004319 0.000885 0.002004 -0.003245 0.001589 0.002452 -0.000445 -0.001531 -0.004309 0.000804 0.002009 -0.001967 -0.004017
second 0.001523 -0.004243 0.000736 -0.004922 -0.002319 0.000475 0.000870 0.000720 0.000429 0.001783 0.004427 -0.003646 -0.001173 -0.000079 -0.000989 0.003890 -0.001181 -0.004119 -0.000770 0.004388 0.004262 0.001730 -0.000916 0.004960 -0.001255 -0.000871 0.004234 0.000802 -0.002142 0.001729 0.002013 0.003507 -0.003235 -0.004301 -0.002039 -0.001761 -0.001187 0.001312 -0.001720 -0.000940 -0.000871 0.001956 0.003677 -0.002783 -0.000580 0.000409 0.004710 -0.000100 -0.002771 -0.001434 0.000554 -0.003944 0.002689 0.000413 -0.002163 -0.001724 0.004878 0.001491 0.004383 0.004529 0.001261 -0.000811 0.000104 -0.002310 0.002631 0.004811 0.002820 0.004193 0.003494 0.004670 -0.001753 -0.002321 0.003974 0.002544 -0.001122 -0.001852 -0.004889 -0.000772 0.003920 -0.000041 0.004712 -0.000016 -0.001586 0.000593 -0.002730 0.002596 -0.004376 -0.004296 0.000546 0.004105 0.004318 -0.004655 -0.002501 -0.003312 -0.003320 -0.000972 0.000056 0.000116 0.002615 -0.002446
another -0.001191 0.002287 -0.002877 -0.003907 -0.001228 0.000695 0.003205 0.003856 0.003806 -0.000387 0.003616 -0.002210 -0.002288 -0.001542 -0.000712 -0.004897 0.002141 0.004642 -0.002862 -0.001953 0.000710 -0.000570 0.003796 0.000918 0.002398 -0.002547 0.001456 -0.001326 -0.000704 -0.003695 -0.003661 0.004221 0.001750 0.002873 -0.004233 -0.000608 -0.000978 -0.004091 0.001923 0.004580 -0.004758 -0.000883 -0.003283 -0.000255 0.004053 0.003742 0.002538 -0.001902 -0.004587 0.004539 0.002124 0.003537 -0.001550 -0.001301 -0.003967 0.003658 0.001132 -0.004884 0.002225 0.004940 0.003933 -0.004951 0.002567 -0.003837 0.000737 0.003891 -0.003385 0.002470 -0.004253 0.000382 -0.000420 -0.003234 -0.000081 0.003617 -0.003728 -0.002680 0.000605 0.003188 -0.000191 -0.003165 -0.000919 0.003048 -0.001957 -0.003368 -0.001515 0.001707 -0.002607 0.004595 -0.001494 0.001658 0.000043 0.004377 0.004365 -0.002413 -0.004138 0.000944 0.004578 0.000924 -0.003476 -0.002740
first -0.001477 -0.003481 0.000705 0.002224 0.000920 -0.003945 0.003048 -0.001895 -0.002137 0.001198 0.001665 0.004565 0.001028 -0.004517 0.000973 -0.003002 0.001405 0.002926 -0.002436 0.002744 -0.000164 -0.000165 -0.003275 -0.003593 -0.003533 -0.003225 -0.002903 0.000267 0.001729 -0.003941 0.004637 -0.004681 -0.003792 0.004394 0.004707 -0.004261 0.004355 0.002191 -0.000421 -0.002965 0.003103 0.001395 -0.001608 -0.001081 -0.001588 0.004973 0.000983 -0.000429 -0.004710 0.000003 0.003311 0.004342 0.004885 0.002700 -0.000479 0.003701 0.004235 -0.000145 0.000670 -0.004221 0.002633 0.003891 0.002813 -0.000753 -0.003082 0.000889 -0.000568 0.004037 -0.000224 -0.004245 -0.002995 -0.003897 -0.004874 -0.002496 -0.002474 -0.002177 -0.001608 -0.004594 -0.003119 0.004455 0.002463 -0.003574 -0.003818 0.003087 0.002723 -0.004751 0.004223 0.000106 -0.004531 0.001119 -0.002163 -0.003146 -0.002288 -0.004212 -0.003830 -0.003864 -0.002336 0.000507 -0.004117 -0.004889
yet 0.001258 0.002584 0.003750 0.002882 0.002094 0.002946 0.004478 -0.004416 0.001778 0.000279 0.000530 -0.002193 0.001233 0.002213 0.000176 0.002781 -0.004617 -0.000309 0.002993 -0.001071 0.001097 0.003892 0.002069 0.004817 -0.001021 -0.000104 0.004077 -0.004424 -0.004683 -0.001552 0.004181 -0.000274 -0.001269 0.002296 0.002012 -0.001784 0.002312 -0.003892 0.004550 -0.000279 0.004795 0.001489 -0.004816 -0.002287 0.002605 0.000975 -0.003858 0.002213 -0.000987 0.003488 -0.000783 0.001454 0.000562 -0.000287 0.003156 0.004116 -0.002971 -0.001437 -0.003491 0.001283 -0.001776 -0.001039 0.000516 -0.002754 0.004065 -0.004373 0.000229 -0.004487 -0.002618 0.002455 -0.003923 0.003477 0.002208 -0.000991 -0.003643 -0.003656 0.003216 0.001948 0.001479 -0.002141 -0.002599 -0.000520 -0.002185 0.002571 -0.001423 -0.000227 0.000072 0.000523 0.002863 -0.002605 -0.003906 0.004005 -0.003446 0.002037 -0.004012 -0.001347 0.000098 -0.002014 -0.000472 -0.001320
final 0.002533 -0.003159 -0.000525 -0.002860 -0.000669 0.001252 -0.002927 0.004209 -0.004722 0.003688 -0.002229 -0.003077 -0.002092 0.002402 0.003852 0.000007 -0.004687 -0.002793 -0.002781 0.001028 0.004085 0.004096 -0.003297 -0.000038 0.003639 0.004041 0.001336 0.002199 -0.000188 0.002757 0.000514 0.001534 0.003829 -0.000150 0.004571 -0.000544 -0.003130 0.000706 0.004636 -0.001679 0.003878 0.004484 -0.003633 -0.002733 -0.001183 0.002635 0.003526 -0.000178 -0.003979 0.004671 -0.002025 -0.001522 0.002654 -0.000732 0.004173 0.002351 0.000874 -0.001706 -0.002874 0.002040 0.004323 0.004399 0.000166 -0.003176 -0.003402 0.001931 -0.001297 -0.001108 0.004259 -0.002481 -0.000093 0.001146 -0.002283 -0.001359 -0.003539 0.003539 -0.001971 -0.002813 -0.003584 -0.001949 -0.002791 -0.004426 0.003438 -0.004125 0.002772 -0.003552 -0.004248 -0.003376 0.000712 -0.001236 -0.000538 0.004042 -0.004551 0.002178 -0.001445 -0.003901 -0.003855 -0.003291 -0.003867 0.000764
more -0.003033 -0.001000 -0.002990 0.002876 -0.003013 -0.003585 -0.002169 0.004939 0.002690 -0.001854 -0.002482 -0.003169 -0.003958 -0.002864 -0.000668 0.001975 -0.001386 -0.001196 0.001640 0.004549 0.002895 0.000998 0.003012 0.003840 0.002337 -0.004346 0.003572 -0.000481 -0.002898 -0.004416 0.002875 0.003042 0.001443 0.003908 0.001830 0.001428 -0.004929 -0.002295 0.000092 -0.002240 -0.003090 0.002394 0.003090 0.000106 0.000944 -0.003793 0.003073 -0.001059 -0.000683 -0.003450 -0.004520 0.003018 -0.003261 -0.003982 0.001181 0.002216 0.002378 0.003198 0.003308 -0.004279 0.002893 0.004390 0.000660 -0.004049 -0.002279 0.003693 0.001090 -0.002642 -0.002598 0.001504 0.001647 -0.004307 -0.002186 -0.002730 -0.002812 -0.002377 0.000844 -0.001283 0.002397 -0.003701 -0.000338 0.000830 0.000510 0.003835 -0.000862 0.001567 -0.003662 -0.000339 0.002334 0.003435 -0.003117 0.002945 0.003794 0.000887 0.004400 -0.004174 -0.003293 0.002326 0.001683 0.000372
